-0.1103885993939153,0.8380416619568505,0.8358263720746681
-0.11969867567673176,0.7144901582653527,1.1424784129554604
-0.10843148443312248,0.6008886530687322,1.4027581107532447
-0.09703912058024913,0.49553591812441494,1.6258723543735847
-0.08759415245124146,0.3986783618818492,1.819493681865829
-0.07995677412208838,0.3101921727139307,1.989594770546012
-0.07382807817121018,0.22960479171591974,2.1407355647592334
-0.06895281785846906,0.15628231124119313,2.276398981277854
-0.06512476180110122,0.08954653044708705,2.3992664995380877
-0.06217616867873329,0.028735672765196892,2.5114251015749707
-0.05996909026257884,-0.02676718059217812,2.6145184044325354
-0.05838908111452243,-0.07752300069011568,2.70985635421192
-0.05734056507565671,-0.12403473411003092,2.7984950915372573
-0.056743309093865546,-0.16674969863207117,2.8812955347523372
-0.0565296692756981,-0.2060639997386267,2.958966761526529
-0.05664240107557673,-0.24232766194514188,3.0320984671179927
-0.057032896704893414,-0.2758497977926404,3.1011855074394616
-0.057659754208400915,-0.3069034822380582,3.166646651852172
-0.05848760831148992,-0.3357301881166572,3.2288390577915047
-0.0594861701750206,-0.36254373905189724,3.288069552668747
-0.06062943517653265,-0.3875337882972818,3.3446035095382167
-0.061895026637488706,-0.41086885711466453,3.3986718918684815
-0.06326365007448691,-0.43269897658056583,3.4504768923098896
-0.0647186376885085,-0.45315797903171723,3.500196482178423
-0.06624556681858376,-0.47236548358845465,3.5479881098849333
-0.06783193924741229,-0.49042861650291136,3.5939917290687236
-0.06946691075209939,-0.5074435026683652,3.6383322947418817
-0.07114106228853541,-0.5234965601398559,3.681121834122327
-0.07284620579321097,-0.5386656252803641,3.7224611750730734
-0.07457521886623768,-0.553020932308146,3.7624413970728243
-0.0763219036297874,-0.5666259676271768,3.801145055913419
-0.07808086588846691,-0.5795382163691329,3.8386472227657755
-0.07984741139263553,-0.5918098160308548,3.8750163700853952
-0.08161745655400215,-0.6034881299135858,3.910315130460413
-0.08338745141010152,-0.6146162512144359,3.944600949509277
-0.08515431300018504,-0.6252334470428905,3.977926649991512
-0.08691536761552383,-0.6353755502959512,4.010340921163312
-0.08866830063446088,-0.6450753061890695,4.0418887449083325
-0.09041111285693548,-0.6543626792756814,4.072611768165447
-0.09214208242253334,-0.6632651259691745,4.102548629553489
-0.09385973153684579,-0.6718078368850384,4.1317352467770725
-0.09556279734822933,-0.6800139527284619,4.160205070324877
-0.09725020641516127,-0.6879047569476969,4.187989308092525
-0.09892105228658292,-0.6954998479424026,4.215117124839356
-0.1005745757867798,-0.702817293247564,4.241615819790292
-0.10221014765460978,-0.7098737677977239,4.267510985198333
-0.10382725323615762,-0.716684678105261,4.29282664826972
-0.10542547897163322,-0.7232642739533196,4.317585398508334
-0.10700450045280056,-0.7296257490032374,4.341808502245612
-0.10856407185741347,-0.7357813315429637,4.365516005877903
-0.11010401659292864,-0.74174236645308,4.388726829126468
-0.11162421900380723,-0.7475193893371624,4.411458849460101
-0.11312461701566133,-0.753122193650459,4.4337289786711525
-0.11460519560571879,-0.7585598915628374,4.455553232468491
-0.1160659810031113,-0.7638409692064875,4.4769467938419485
-0.11750703553456907,-0.7689733368843104,4.497924070859195
-0.11892845304153465,-0.7739643747497206,4.518498749475481
-0.12033035480377867,-0.7788209744114432,4.53868384186719
-0.12171288591245362,-0.7835495768667995,4.55849173073986
-0.12307621204234463,-0.7881562071228945,4.577934210009269
-0.12442051657904736,-0.7926465058263524,4.597022522208581
-0.12574599806197012,-0.7970257581880456,4.615767392935158
-0.12705286790862746,-0.8012989204590578,4.6341790626158765
-0.12834134838963682,-0.8054706441874124,4.652267315839604
-0.1296116708273377,-0.8095452984614196,4.670041508478831
-0.13086407399400582,-0.8135269903245244,4.687510592799092
-0.13209880268830948,-0.8174195835278584,4.704683140734228
-0.13331610647105419,-0.8212267157701293,4.721567365487276
-0.13451623854332675,-0.8249518145596832,4.738171141600802
-0.13569945475201065,-0.8285981118204,4.7545020236260385
-0.13686601270926085,-0.8321686573512987,4.770567263507679
-0.13801617101398392,-0.8356663312392025,4.786373826789882
-0.1391501885646413,-0.8390938553143739,4.801928407738956
-0.14026832395383307,-0.8424538037305914,4.817237443469209
-0.14137083493612013,-0.8457486127435392,4.8323071271506155
-0.1424579779614481,-0.8489805897545675,4.847143420369502
-0.14353000776732935,-0.8521519216807527,4.861752064707311
-0.14458717702364973,-0.8552646827066623,4.876138592596535
-0.14562973602460622,-0.8583208414682563,4.890308337507782
-0.1466579324228315,-0.861322267714853,4.904266443517349
-0.14767201100129837,-0.8642707384910594,4.918017874300221
-0.14867221347900267,-0.8671679438768621,4.931567421589914
-0.14965877834687946,-0.8700154923207842,4.944919713142935
-0.15063194073071765,-0.8728149155980047,4.958079220242558
-0.15159193227821013,-0.8755676734225959,4.971050264773807
-0.15253898106753214,-0.8782751577405772,4.983837025898957
-0.15347331153511698,-0.8809386967282389,4.9964435463606085
-0.1543951444205258,-0.8835595585181371,5.008873738437097
-0.1553046967265367,-0.8861389546733148,5.021131389573336
-0.1562021816927356,-0.8886780434286173,5.033220167708073
-0.15708780878109052,-0.8911779327164088,5.045143626317324
-0.15796178367212868,-0.8936396829926305,5.056905209191981
-0.15882430827048097,-0.8960643098778249,5.06850825496642
-0.15967558071867524,-0.8984527866265984,5.07995600141357
-0.16051579541817526,-0.9008060464379288,5.091251589520946
-0.16134514305677256,-0.9031249846177329,5.102398067360947
-0.16216381064150653,-0.90541046060424,5.113398393767885
-0.16297198153639414,-0.9076632998658661,5.124255441833235
-0.16376983550430885,-0.9098842956805693,5.134972002229945
-0.16455754875242307,-0.9120742108049432,5.145550786375795
-0.16533529398068614,-0.9142337790407169,5.155994429445027
-0.16610324043286,-0.9163637067057079,5.166305493237093
-0.16686155394969368,-0.9184646740157789,5.176486468910557
-0.16761039702385283,-0.920537336383837,5.186539779589713
-0.16834992885626457,-0.9225823256414744,5.196467782851127
-0.1690803054135757,-0.9246002511884437,5.206272773096562
-0.16980167948644803,-0.9265917010747717,5.215956983818602
-0.17051420074845694,-0.9285572430199575,5.225522589764784
-0.17121801581537227,-0.9304974253733997,5.234971709005574
-0.1719132683046236,-0.9324127780198842,5.244306404911466
-0.17260009889480343,-0.9343038132336975,5.2535286880438
-0.17327864538503113,-0.936171026484663,5.2626405179639475
-0.17394904275406223,-0.9380148971991945,5.271643804964992
-0.17461142321902468,-0.9398358894792003,5.2805404117299295
-0.17526591629367766,-0.9416344527815268,5.289332154920076
-0.1759126488461041,-0.9434110225603874,5.298020806697236
-0.17655174515576105,-0.9451660208750959,5.306608096182902
-0.17718332696982478,-0.9468998569652591,5.315095710857634
-0.17780751355876684,-0.9486129277954052,5.323485297903536
-0.17842442177112058,-0.9503056185709331,5.331778465492556
-0.17903416608738604,-0.9519783032271089,5.339976784023335
-0.179636858673055,-0.9536313448927416,5.348081787308921
-0.18023260943071498,-0.955265096330039,5.356094973717811
-0.18082152605121488,-0.9568799003520744,5.364017807270446
-0.18140371406387992,-0.9584760902191728,5.371851718693235
-0.18197927688575344,-0.9600539900154528,5.379598106432115
-0.18254831586986417,-0.961613915006688,5.387258337627481
-0.18311093035251125,-0.9631561719805541,5.394833749052253
-0.1836672176995658,-0.9646810595702793,5.402325648014729
-0.18421727335178542,-0.9661888685626447,5.4097353132278805
-0.18476119086915388,-0.9676798821912226,5.417063995646433
-0.18529906197423945,-0.9691543764156714,5.424312919273332
-0.18583097659458653,-0.9706126201878729,5.431483281936843
-0.1863570229041517,-0.9720548757056466,5.438576256039527
-0.1868772873637825,-0.9734813986547094,5.445592989280453
-0.18739185476076592,-0.9748924384395423,5.452534605351584
-0.18790080824744682,-0.9762882384037422,5.459402204609651
-0.18840422937893478,-0.9776690360404464,5.466196864724447
-0.18890219814991718,-0.979035063193358,5.47291964130446
-0.18939479303058127,-0.9803865462488494,5.479571568500987
-0.18988209100167763,-0.9817237063196458,5.486153659591393
-0.19036416758872587,-0.9830467594205078,5.4926669075425645
-0.19084109689538561,-0.984355916636334,5.499112285555237
-0.1913129516360145,-0.9856513842830757,5.505490747590069
-0.19177980316741408,-0.9869333640618371,5.511803228876064
-0.19224172151979718,-0.9882020532064925,5.518050646402236
-0.19269877542698724,-0.9894576446251716,5.524233899392994
-0.1931510323558589,-0.9907003270358858,5.530353869768019
-0.1935985585350528,-0.9919302850966256,5.536411422587174
-0.1940414189829626,-0.993147699530172,5.54240740648107
-0.19447967753502968,-0.9943527472438943,5.5483426540678105
-0.19491339687034595,-0.9955456014447811,5.554217982356453
-0.1953426385375916,-0.9967264317499173,5.560034193137736
-0.19576746298031977,-0.9978954042926514,5.565792073362477
-0.19618792956160347,-0.9990526818246344,5.57149239550818
-0.19660409658806338,-1.000198423813936,5.5771359179342275
-0.1970160213332889,-1.0013327865394224,5.582723385226172
-0.1974237600606701,-1.0024559231815688,5.58825552852943
-0.19782736804565365,-1.0035679839098655,5.593733065872829
-0.19822689959744016,-1.0046691159669832,5.599156702482363
-0.19862240808013248,-1.0057594637498324,5.604527131085499
-0.19901394593335442,-1.0068391688876812,5.609845032206454
-0.1994015646923507,-1.0079083703174148,5.615111074452585
-0.19978531500758404,-1.008967204356134,5.620325914792421
-0.20016524666383625,-1.0100158047711376,5.625490198825491
-0.20054140859883596,-1.0110543028474601,5.630604561044306
-0.2009138489214166,-1.012082827453033,5.635669625088727
-0.20128261492922472,-1.0131015051015946,5.640686003993009
-0.20164775312598546,-1.0141104600134372,5.645654300425789
-0.20200930923833582,-1.0151098141740764,5.650575106923191
-0.20236732823224352,-1.0160996873909414,5.655449006115391
-0.20272185432901504,-1.017080197348165,5.660276570946771
-0.20307293102091395,-1.0180514596595527,5.665058364889912
-0.20342060108638674,-1.0190135879198021,5.669794942153656
-0.20376490660491675,-1.0199666937540421,5.6744868478853965
-0.20410588897151366,-1.0209108868657781,5.679134618367813
-0.20444358891084674,-1.021846275083285,5.683738781210225
-0.2047780464910324,-1.0227729644045158,5.688299855534737
-0.20510930113708448,-1.0236910590405992,5.692818352157382
-0.20543739164404184,-1.0246006614579606,5.697294773764361
-0.20576235618977018,-1.0255018724191338,5.701729615083581
-0.20608423234746065,-1.0263947910223181,5.706123363051631
-0.20640305709782214,-1.0272795147397045,5.710476496976366
-0.20671886684098265,-1.0281561394546521,5.71478948869519
-0.20703169740810243,-1.0290247594977335,5.719062802729221
-0.207341584072714,-1.0298854676817049,5.723296896433433
-0.2076485615617874,-1.03073835533543,5.727492220142899
-0.20795266406653348,-1.0315835123368013,5.731649217315347
-0.20825392525294856,-1.0324210271447054,5.735768324669948
-0.20855237827211628,-1.0332509868300548,5.739849972322703
-0.2088480557702603,-1.034073477105924,5.743894583918285
-0.20914098989855961,-1.0348885823568126,5.747902576758652
-0.20943121232274428,-1.0356963856671038,5.751874361928393
-0.2097187542324544,-1.036496968848682,5.755810344416951
-0.21000364635038934,-1.0372904124678093,5.75971092323785
-0.2102859189412407,-1.0380767958712345,5.763576491544928
-0.21056560182042067,-1.0388561972115917,5.767407436745774
-0.2108427243625911,-1.0396286934720913,5.7712041406123635
-0.21111731550999183,-1.0403943604905495,5.774966979389012
-0.2113894037805812,-1.0411532729827664,5.778696323897746
-0.21165901727599262,-1.0419055045652663,5.782392539641092
-0.21192618368930594,-1.0426511277774424,5.786055986902455
-0.2121909303126435,-1.0433902141031155,5.789687020844106
-0.21245328404460262,-1.0441228339915167,5.7932859916028026
-0.2127132713975066,-1.0448490568777247,5.796853244383217
-0.21297091850450517,-1.0455689512025808,5.800389119549143
-0.21322625112651156,-1.046282584432078,5.803893952712553
-0.21347929465898316,-1.0469900230762663,5.807368074820663
-0.21373007413855546,-1.0476913327076673,5.8108118122409
-0.2139786142495286,-1.048386577979226,5.8142254868439744
-0.21422493933020842,-1.049075822641814,5.817609416085035
-0.21446907337911011,-1.0497591295612987,5.82096391308297
-0.21471104006102698,-1.0504365607351784,5.8242892866979235
-0.21495086271296424,-1.051108177308817,5.8275858416070525
-0.2151885643499467,-1.0517740395912827,5.83085387837859
-0.21542416767069905,-1.0524342070707944,5.834093693544273
-0.21565769506320287,-1.0530887384297982,5.837305579670124
-0.2158891686101381,-1.0537376915596866,5.840489825425694
-0.21611861009420252,-1.0543811235751523,5.843646715651767
-0.2163460410033209,-1.055019090828219,5.846776531426608
-0.2165714825357437,-1.0556516489219288,5.849879550130711
-0.21679495560503537,-1.0562788527237157,5.852956045510207
-0.21701648084496097,-1.0569007563784594,5.856006287738846
-0.21723607861426575,-1.0575174133212466,5.859030543478694
-0.21745376900135813,-1.0581288762898313,5.862029075939491
-0.21766957182889252,-1.0587351973368115,5.865002144936754
-0.21788350665825754,-1.0593364278415314,5.867950006948668
-0.21809559279397125,-1.0599326185217115,5.870872915171731
-0.2183058492879871,-1.0605238194448157,5.87377111957529
-0.21851429494390673,-1.0611100800391693,5.876644866954894
-0.21872094832111227,-1.061691449104824,5.879494400984514
-0.21892582773880911,-1.0622679748241832,5.882319962267748
-0.21912895127999013,-1.0628397047723979,5.88512178838791
-0.21933033679531755,-1.0634066859275366,5.887900113957093
-0.21953000190692568,-1.0639689646805186,5.890655170664279
-0.2197279640121473,-1.0645265868448517,5.89338718732239
-0.21992424028716973,-1.0650795976661542,5.896096389914454
-0.22011884769060938,-1.0656280418314625,5.898783001638791
-0.22031180296702108,-1.066171963478357,5.901447242953312
-0.2205031226503396,-1.0667114062038818,5.904089331618933
-0.22069282306724503,-1.0672464130732853,5.90670948274209
-0.22088092034046888,-1.067777026628569,5.909307908816485
-0.22106743039203378,-1.0683032888968673,5.9118848197638885
-0.22125236894642603,-1.0688252413986452,5.91444042297425
-0.22143575153371217,-1.0693429251557374,5.916974923344977
-0.22161759349259116,-1.0698563806992067,5.919488523319411
-0.2217979099733879,-1.0703656480770583,5.9219814229246355
-0.22197671594098836,-1.0708707668617883,5.9244538198084555
-0.22215402617771932,-1.0713717761577797,5.926905909275781
-0.22232985528617796,-1.0718687146085506,5.92933788432418
-0.2225042176919947,-1.072361620403866,5.931749935678835
-0.22267712764655612,-1.0728505312866852,5.934142251826842
-0.22284859922967032,-1.0733354845600012,5.936515019050793
-0.22301864635218127,-1.0738165170935223,5.938868421461786
-0.2231872827585392,-1.0742936653302348,5.941202641031773
-0.2233545220293154,-1.0747669652928256,5.943517857625329
-0.2235203775836755,-1.0752364525899991,5.945814249030809
-0.22368486268180487,-1.0757021624226526,5.948091990990946
-0.22384799042729095,-1.0761641295899447,5.950351257232847
-0.2240097737694554,-1.0766223884952424,5.9525922194974665
-0.22417022550565252,-1.077076973151954,5.954815047568539
-0.22432935828351597,-1.077527917189256,5.957019909300972
-0.22448718460317327,-1.0779752538577096,5.959206970648693
-0.22464371681941145,-1.0784190160347662,5.961376395692058
-0.2247989671438121,-1.0788592362301808,5.9635283466647
-0.22495294764683807,-1.0792959465913157,5.965662983979924
-0.22510567025989142,-1.0797291789083487,5.967780466256633
-0.22525714677732975,-1.0801589646193845,5.969880950344761
-0.22540738885844408,-1.0805853348154713,5.971964591350292
-0.22555640802941018,-1.0810083202455314,5.974031542659799
-0.2257042156851931,-1.081427951321196,5.976081955964585
-0.2258508230914301,-1.081844258121549,5.978115981284355
-0.22599624138626997,-1.0822572703977944,5.980133766990524
-0.2261404815821861,-1.082667017577837,5.982135459829074
-0.2262835545677577,-1.083073528770779,5.984121204943024
-0.22642547110941538,-1.0834768327713276,5.986091145894531
-0.2265662418531606,-1.0838769580641503,5.988045424686587
-0.22670587732625447,-1.0842739328281232,5.989984181784347
-0.22684438793887313,-1.0846677849405226,5.991907556136105
-0.2269817839857428,-1.085058541981141,5.993815685193887
-0.22711807564773837,-1.085446231236325,5.995708704933705
-0.22725327299345935,-1.0858308797029501,5.997586749875493
-0.227387385980777,-1.0862125140923202,5.999449953102659
-0.22752042445835785,-1.0865911608340095,6.001298446281321
-0.22765239816715582,-1.0869668460796251,6.003132359679267
-0.22778331674188437,-1.0873395957065155,6.004951822184529
-0.22791318971246224,-1.0877094353214185,6.006756961323684
-0.22804202650543381,-1.0880763902640342,6.00854790327987
-0.22816983644536531,-1.0884404856105458,6.010324772910454
-0.2282966287562235,-1.0888017461770914,6.012087693764441
-0.22842241256272078,-1.0891601965231505,6.013836788099605
-0.22854719689164776,-1.089515860954904,6.01557217689931
-0.2286709906731782,-1.0898687635285227,6.017293979889096
-0.22879380274215508,-1.0902189280534014,6.019002315552937
-0.22891564183935556,-1.0905663780953396,6.02069730114932
-0.22903651661273192,-1.090911136979681,6.022379052726962
-0.22915643561863588,-1.0912532277943843,6.024047685140367
-0.22927540732302215,-1.0915926733930594,6.0257033120650725
-0.22939344010263202,-1.0919294963979456,6.0273460460127035
-0.22951054224615874,-1.0922637192028462,6.028975998345735
-0.22962672195539052,-1.0925953639760084,6.0305932792920425
-0.2297419873463405,-1.09292445266297,6.0321979979592415
-0.22985634645035546,-1.0932510069893475,6.033790262348772
-0.22996980721520627,-1.0935750484635869,6.0353701793697745
-0.23008237750616384,-1.0938965983796736,6.036937854852762
-0.23019406510705587,-1.094215677819789,6.038493393563032
-0.23030487772130612,-1.0945323076569349,6.040036899213942
-0.2304148229729595,-1.094846508557517,6.041568474479924
-0.23052390840769166,-1.095158300983877,6.043088221009304
-0.23063214149379643,-1.0954677051968023,6.044596239436953
-0.2307395296231684,-1.0957747412579797,6.046092629396723
-0.2308460801122609,-1.0960794290324234,6.047577489533694
-0.23095180020303355,-1.0963817881908602,6.049050917516238
-0.23105669706388376,-1.0966818382120813,6.0505130100478866
-0.23116077779056546,-1.0969795983852544,6.0519638628790515
-0.2312640494070904,-1.0972750878122015,6.053403570818542
-0.23136651886662019,-1.097568325409646,6.054832227744906
-0.2314681930523427,-1.097859329911422,6.056249926617619
-0.23156907877833202,-1.0981481198706529,6.057656759488093
-0.23166918279039989,-1.0984347136618915,6.059052817510544
-0.2317685117669319,-1.0987191294832377,6.060438190952649
-0.23186707231971168,-1.099001385358416,6.061812969206116
-0.23196487099473437,-1.0992814991388273,6.063177240797023
-0.2320619142730031,-1.0995594885055688,6.064531093396058
-0.2321582085713195,-1.0998353709714233,6.065874613828594
-0.2322537602430583,-1.100109163882826,6.067207888084605
-0.23234857557892932,-1.1003808844217833,6.068531001328476
-0.23244266080773587,-1.1006505496077912,6.069844037908614
-0.23253602209711127,-1.1009181762997007,6.071147081366941
-0.2326286655542536,-1.101183781197581,6.072440214448298
-0.23272059722664376,-1.1014473808445242,6.07372351910963
-0.23281182310275503,-1.1017089916284541,6.07499707652913
-0.2329023491127549,-1.1019686297838946,6.0762609671151555
-0.23299218112919154,-1.102226311393714,6.0775152705151125
-0.2330813249676732,-1.1024820523908447,6.07876006562413
-0.23316978638753916,-1.1027358685599795,6.079995430593682
-0.23325757109251793,-1.1029877755392488,6.081221442840056
-0.2333446847313786,-1.103237788821862,6.082438179052668
-0.23343113289856995,-1.1034859237577352,6.083645715202337
-0.23351692113485417,-1.1037321955550943,6.084844126549383
-0.23360205492792702,-1.103976619282061,6.086033487651649
-0.23368653971303355,-1.104219209868201,6.0872138723723666
-0.2337703808735738,-1.1044599821060672,6.088385353887959
-0.23385358374169804,-1.1046989506527172,6.089548004695723
-0.23393615359889305,-1.104936130031199,6.090701896621384
-0.2340180956765665,-1.1051715346320374,6.091847100826585
-0.2340994151566158,-1.1054051787146775,6.092983687816226
-0.2341801171719917,-1.1056370764089223,6.094111727445747
-0.2342602068072539,-1.105867241716353,6.095231288928298
-0.23433968909912295,-1.1060956885117144,6.096342440841799
-0.23441856903701452,-1.1063224305442982,6.097445251135892
-0.23449685156357922,-1.1065474814393028,6.098539787138877
-0.23457454157522284,-1.1067708546991695,6.099626115564437
-0.23465164392262883,-1.1069925637049032,6.100704302518367
-0.23472816341126604,-1.10721262171738,6.101774413505178
-0.2348041048018965,-1.1074310418786344,6.1028365134346005
-0.23487947281107163,-1.1076478372131262,6.103890666628046
-0.2349542721116225,-1.1078630206289968,6.104936936824914
-0.23502850733314554,-1.108076604919304,6.105975387188886
-0.23510218306247826,-1.1082886027632453,6.107006080314076
-0.2351753038441714,-1.1084990267273551,6.108029078231165
-0.2352478741809537,-1.1087078892667033,6.109044442413395
-0.23531989853419052,-1.108915202726062,6.110052233782517
-0.23539138132433657,-1.109120979341068,6.111052512714644
-0.23546232693138236,-1.1093252312393604,6.112045339046054
-0.2355327396952932,-1.1095279704417114,6.113030772078888
-0.2356026239164458,-1.109729208863144,6.114008870586793
-0.2356719838560565,-1.1099289583140206,6.114979692820496
-0.23574082373660513,-1.1101272305011451,6.115943296513281
-0.2358091477422514,-1.1103240370288225,6.116899738886415
-0.23587696001924735,-1.1105193893999148,6.117849076654518
-0.23594426467634744,-1.1107132990168984,6.118791366030836
-0.23601106578520228,-1.1109057771828827,6.119726662732458
-0.2360773673807653,-1.1110968351026373,6.120655021985464
-0.23614317346167535,-1.1112864838835907,6.121576498530034
-0.23620848799064773,-1.1114747345368283,6.1224911466254515
-0.2362733148948516,-1.1116615979780722,6.12339902005508
-0.23633765806629067,-1.1118470850286477,6.12430017213123
-0.23640152136217094,-1.1120312064164435,6.125194655700033
-0.23646490860526848,-1.1122139727768505,6.126082523146193
-0.23652782358429159,-1.1123953946537009,6.126963826397723
-0.23659027005423822,-1.1125754825001846,6.127838616930572
-0.23665225173674756,-1.1127542466797635,6.128706945773268
-0.2367137723204505,-1.1129316974670689,6.129568863511426
-0.23677483546131203,-1.1131078450487875,6.130424420292251
-0.23683544478297036,-1.1132826995245402,6.13127366582898
-0.23689560387707412,-1.113456270907752,6.132116649405246
-0.2369553163036123,-1.1136285691265004,6.132953419879402
-0.23701458559124086,-1.1137996040243687,6.133784025688807
-0.23707341523760542,-1.1139693853612773,6.134608514854042
-0.2371318087096618,-1.1141379228143122,6.135426934983078
-0.23718976944399017,-1.1143052259785355,6.136239333275386
-0.23724730084710455,-1.1144713043677967,6.137045756526033
-0.23730440629576222,-1.1146361674155245,6.137846251129674
-0.23736108913726653,-1.114799824475522,6.1386408630845395
-0.2374173526897646,-1.1149622848227336,6.13942963799636
-0.23747320024254628,-1.115123557654018,6.140212621082232
-0.2375286350563341,-1.115283652088909,6.140989857174471
-0.2375836603635734,-1.1154425771703647,6.141761390724388
-0.23763827936871876,-1.115600341865507,6.142527265806024
-0.23769249524851052,-1.1157569550663562,6.1432875261198525
-0.23774631115226047,-1.1159124255905575,6.144042214996449
-0.2377997302021225,-1.1160667621820926,6.144791375400078
-0.237852755493366,-1.1162199735119913,6.14553504993226
-0.23790539009464104,-1.116372068179026,6.146273280835332
-0.23795763704824835,-1.1165230547104108,6.1470061099959095
-0.23800949937039861,-1.1166729415624763,6.147733578948323
-0.23806098005147178,-1.1168217371213527,6.14845572887805
-0.23811208205627465,-1.1169694497036315,6.149172600625049
-0.23816280832428963,-1.1171160875570303,6.149884234687118
-0.23821316176992913,-1.1172616588610416,6.150590671223156
-0.23826314528277948,-1.1174061717275796,6.151291950056438
-0.2383127617278455,-1.1175496342016191,6.151988110677817
-0.23836201394579373,-1.117692054261828,6.152679192248901
-0.2384109047531875,-1.117833439821185,6.153365233605187
-0.23845943694272426,-1.1179737987276006,6.154046273259178
-0.23850761328346728,-1.1181131387645267,6.154722349403455
-0.2385554365210783,-1.1182514676515596,6.155393499913704
-0.2386029093780415,-1.1183887930450334,6.1560597623516955
-0.23865003455388972,-1.11852512253861,6.1567211739682985
-0.23869681472542573,-1.1186604636638648,6.157377771706383
-0.23874325254694403,-1.1187948238908634,6.158029592203721
-0.23878935065044557,-1.1189282106287257,6.158676671795851
-0.23883511164585244,-1.1190606312261986,6.159319046518941
-0.23888053812122104,-1.1191920929722061,6.159956752112571
-0.2389256326429527,-1.1193226030964027,6.160589824022497
-0.23897039775599815,-1.1194521687697212,6.161218297403412
-0.23901483598406328,-1.1195807971049099,6.161842207121664
-0.2390589498298139,-1.1197084951570657,6.162461587757905
-0.2391027417750724,-1.1198352699241674,6.1630764736097765
-0.2391462142810191,-1.1199611283475877,6.163686898694522
-0.23918936978838667,-1.1200860773126196,6.164292896751576
-0.23923221071765313,-1.1202101236489805,6.164894501245134
-0.23927473946923283,-1.12033327413132,6.165491745366692
-0.23931695842366782,-1.1204555354797197,6.166084662037568
-0.23935886994181416,-1.1205769143601914,6.166673283911348
-0.2394004763650264,-1.1206974173851572,6.1672576433763835
-0.23944178001533972,-1.1208170511139415,6.167837772558204
-0.23948278319565305,-1.1209358220532453,6.168413703321921
-0.23952348818990768,-1.1210537366576212,6.168985467274602
-0.23956389726326124,-1.1211708013299473,6.169553095767642
-0.2396040126622676,-1.1212870224218843,6.1701166198990505
-0.23964383661504532,-1.1214024062343346,6.170676070515801
-0.2396833713314516,-1.1215169590178982,6.1712314782160655
-0.239722619003252,-1.1216306869733257,6.1717828733515
-0.23976158180428636,-1.1217435962519546,6.172330286029449
-0.239800261890633,-1.1218556929561558,6.172873746115173
-0.23983866140077734,-1.121966983139766,6.173413283234017
-0.23987678245577018,-1.1220774728085214,6.173948926773569
-0.23991462715938783,-1.1221871679204765,6.174480705885797
-0.23995219759829264,-1.1222960743864372,6.175008649489174
-0.23998949584218968,-1.1224041980703674,6.175532786270748
-0.24002652394398033,-1.1225115447898093,6.1760531446882325
-0.2400632839399169,-1.122618120316292,6.176569752972039
-0.24009977784975414,-1.1227239303757306,6.177082639127315
-0.2401360076769002,-1.1228289806488307,6.177591830935945
-0.24017197540856478,-1.1229332767714886,6.178097355958533
-0.240207683015906,-1.123036824335173,6.178599241536363
-0.24024313245417422,-1.1231396288873254,6.179097514793355
-0.2402783256628593,-1.1232416959317384,6.1795922026379735
-0.24031326456583232,-1.12334303092893,6.180083331765157
-0.24034795107148466,-1.123443639296537,6.180570928658161
-0.24038238707286796,-1.1235435264096747,6.181055019590459
-0.2404165744478318,-1.1236426976013045,6.1815356306275655
-0.24045051505916393,-1.123741158162612,6.182012787628879
-0.24048421075471804,-1.123838913343353,6.182486516249485
-0.2405176633675546,-1.1239359683522216,6.1829568419419445
-0.24055087471606917,-1.1240323283572062,6.183423789958063
-0.24058384660412485,-1.1241279984859327,6.18388738535064
-0.24061658082118068,-1.1242229838260172,6.18434765297522
-0.2406490791424209,-1.1243172894254077,6.1848046174918
-0.24068134332888036,-1.1244109202927244,6.1852583033665285
-0.24071337512757085,-1.1245038813976003,6.185708734873404
-0.24074517627160832,-1.1245961776710114,6.186155936095914
-0.24077674848032832,-1.1246878140056087,6.186599930928719
-0.24080809345941545,-1.1247787952560455,6.187040743079255
-0.2408392129010215,-1.1248691262393014,6.187478396069377
-0.240870108483882,-1.1249588117350013,6.187912913236932
-0.24090078187343472,-1.1250478564857371,6.188344317737385
-0.24093123472194072,-1.1251362651973762,6.188772632545341
-0.24096146866859705,-1.1252240425393822,6.189197880456136
-0.24099148533964865,-1.125311193145115,6.189620084087366
-0.24102128634850697,-1.1253977216121387,6.19003926588039
-0.24105087329585614,-1.1254836325025264,6.1904554481018685
-0.241080247769771,-1.1255689303431566,6.190868652845231
-0.24110941134582028,-1.125653619626011,6.191278902032181
-0.24113836558717983,-1.1257377048084716,6.191686217414135
-0.24116711204473754,-1.1258211903136057,6.192090620573686
-0.24119565225720116,-1.1259040805304592,6.1924921329260405
-0.24122398775120396,-1.12598637981434,6.192890775720441
-0.241252120041409,-1.1260680924870978,6.193286570041555
-0.24128005063061264,-1.1261492228374106,6.193679536810905
-0.24130778100984687,-1.1262297751210577,6.194069696788212
-0.2413353126584804,-1.126309753561194,6.194457070572784
-0.24136264704431915,-1.126389162348625,6.1948416786048766
-0.24138978562370683,-1.1264680056420722,6.195223541167007
-0.24141672984162074,-1.1265462875684429,6.195602678385307
-0.2414434811317718,-1.1266240122230944,6.195979110230833
-0.24147004091670016,-1.1267011836700966,6.196352856520865
-0.24149641060786958,-1.1267778059424867,6.196723936920189
-0.24152259160576334,-1.1268538830425325,6.197092370942391
-0.24154858529997908,-1.1269294189419814,6.197458177951123
-0.24157439306931855,-1.1270044175823197,6.197821377161337
-0.24160001628188077,-1.1270788828750138,6.198181987640546
-0.24162545629515378,-1.1271528187017663,6.198540028310054
-0.2416507144561043,-1.1272262289147517,6.198895517946153
-0.24167579210126675,-1.127299117336865,6.199248475181354
-0.24170069055682986,-1.1273714877619632,6.199598918505568
-0.241725411138728,-1.1274433439551013,6.199946866267308
-0.24174995515272527,-1.12751468965277,6.2002923366748375
-0.24177432389450074,-1.1275855285631295,6.200635347797347
-0.24179851864973476,-1.1276558643662378,6.200975917566094
-0.2418225406941928,-1.1277257007142831,6.201314063775582
-0.24184639129380905,-1.1277950412318134,6.201649804084628
-0.2418700717047684,-1.1278638895159594,6.20198315601753
-0.24189358317358836,-1.1279322491366581,6.202314136965148
-0.24191692693720018,-1.1280001236368755,6.202642764186019
-0.24194010422302872,-1.1280675165328231,6.202969054807443
-0.24196311624907235,-1.128134431314176,6.203293025826556
-0.24198596422398205,-1.1282008714442926,6.203614694111397
-0.2420086493471374,-1.1282668403604237,6.2039340764019695
-0.24203117280872663,-1.1283323414739201,6.204251189311292
-0.2420535357898209,-1.128397378170454,6.204566049326428
-0.2420757394624501,-1.1284619538102132,6.20487867280953
-0.24209778498968015,-1.1285260717281143,6.2051890759988435
-0.24211967352568614,-1.1285897352340046,6.205497275009727
-0.2421414062158235,-1.1286529476128693,6.205803285835644
-0.24216298419670418,-1.1287157121250222,6.2061071243491694
-0.24218440859626725,-1.1287780320063105,6.206408806302962
-0.24220568053385202,-1.1288399104683087,6.206708347330728
-0.24222680112026826,-1.1289013506985146,6.2070057629482145
-0.2422477714578647,-1.1289623558605415,6.207301068554145
-0.24226859264060227,-1.129022929094314,6.207594279431169
-0.2422892657541184,-1.12908307351625,6.207885410746803
-0.24230979187580026,-1.129142792219455,6.208174477554367
-0.24233017207484867,-1.1292020882739042,6.208461494793892
-0.24235040741234834,-1.12926096472663,6.208746477293046
-0.24237049894132945,-1.129319424601903,6.209029439768038
-0.24239044770684062,-1.1293774709014146,6.209310396824522
-0.24241025474600797,-1.1294351066044586,6.209589362958455
-0.24242992108810169,-1.1294923346681036,6.209866352557019
-0.24244944775460153,-1.1295491580273747,6.210141379899476
-0.24246883575925884,-1.1296055795954272,6.210414459158027
-0.24248808610815956,-1.1296616022637187,6.210685604398677
-0.24250719979978647,-1.1297172289021848,6.210954829582084
-0.24252617782508062,-1.1297724623594032,6.211222148564407
-0.24254502116750462,-1.1298273054627692,6.211487575098146
-0.24256373080310142,-1.1298817610186613,6.211751122832943
-0.24258230770055333,-1.1299358318126005,6.21201280531643
-0.24260075282124452,-1.1299895206094286,6.212272635995023
-0.2426190671193181,-1.1300428301534577,6.2125306282147434
-0.24263725154173327,-1.1300957631686384,6.212786795222017
-0.24265530702832602,-1.1301483223587219,6.213041150164444
-0.24267323451186595,-1.1302005104074144,6.213293706091609
-0.24269103491811128,-1.1302523299785356,6.213544475955848
-0.2427087091658692,-1.130303783716179,6.213793472613004
-0.24272625816704502,-1.130354874244859,6.2140407088232354
-0.24274368282670453,-1.1304056041696722,6.214286197251723
-0.24276098404312524,-1.1304559760764454,6.214529950469456
-0.24277816270785146,-1.130505992531885,6.214771980953954
-0.2427952197057478,-1.1305556560837335,6.215012301090029
-0.24281215591505412,-1.1306049692609093,6.215250923170483
-0.24282897220743685,-1.1306539345736566,6.215487859396863
-0.24284566944804217,-1.130702554513695,6.215723121880163
-0.24286224849554777,-1.1307508315543582,6.215956722641559
-0.24287871020221422,-1.1307987681507423,6.216188673613086
-0.2428950554139372,-1.1308463667398447,6.216418986638337
-0.24291128497029674,-1.130893629740703,6.216647673473204
-0.24292739970460786,-1.1309405595545392,6.216874745786514
-0.2429434004439706,-1.1309871585648954,6.217100215160734
-0.24295928800932032,-1.1310334291377746,6.2173240930926355
-0.24297506321547405,-1.1310793736217712,6.217546390993994
-0.24299072687118162,-1.1311249943482076,6.217767120192224
-0.24300627977917277,-1.131170293631271,6.217986291931038
-0.24302172273620193,-1.1312152737681445,6.218203917371122
-0.2430370565331002,-1.1312599370391343,6.2184200075907645
-0.24305228195482104,-1.1313042857078095,6.218634573586509
-0.24306739978048336,-1.1313483220211218,6.218847626273784
-0.24308241078342013,-1.1313920482095374,6.219059176487541
-0.24309731573122398,-1.1314354664871662,6.21926923498287
-0.24311211538579244,-1.1314785790518866,6.219477812435637
-0.24312681050337157,-1.1315213880854695,6.219684919443083
-0.24314140183460028,-1.1315638957537015,6.2198905665244455
-0.24315589012455677,-1.1316061042065106,6.2200947641215585
-0.24317027611279945,-1.131648015578087,6.220297522599437
-0.24318456053341106,-1.131689631987003,6.220498852246909
-0.24319874411504253,-1.13173095553633,6.220698763277167
-0.24321282758095444,-1.1317719883137685,6.220897265828392
-0.24322681164906065,-1.13181273239175,6.221094369964282
-0.24324069703196632,-1.131853189827571,6.221290085674672
-0.24325448443701359,-1.1318933626634917,6.221484422876095
-0.24326817456632155,-1.1319332529268649,6.221677391412315
-0.24328176811682506,-1.1319728626302434,6.22186900105494
-0.2432952657803179,-1.1320121937714926,6.222059261503936
-0.24330866824349065,-1.1320512483339038,6.222248182388196
-0.24332197618797127,-1.1320900282863104,6.2224357732660875
-0.24333519029036454,-1.1321285355831914,6.2226220436259885
-0.2433483112222911,-1.1321667721647792,6.222807002886819
-0.24336133965042495,-1.1322047399571764,6.222990660398595
-0.24337427623653443,-1.1322424408724585,6.223173025442943
-0.24338712163751777,-1.1322798768087798,6.223354107233617
-0.24339987650544156,-1.1323170496504804,6.223533914917037
-0.24341254148757968,-1.1323539612681934,6.223712457572792
-0.24342511722644763,-1.1323906135189425,6.223889744214154
-0.2434376043598399,-1.132427008246254,6.224065783788581
-0.2434500035208694,-1.1324631472802538,6.224240585178227
-0.243462315338001,-1.132499032437767,6.224414157200434
-0.24347454043508646,-1.1325346655224258,6.224586508608238
-0.24348667943140226,-1.1325700483247618,6.224757648090853
-0.24349873294168367,-1.1326051826223127,6.224927584274145
-0.24351070157616045,-1.1326400701797115,6.22509632572114
-0.24352258594059137,-1.1326747127487893,6.225263880932468
-0.24353438663629765,-1.1327091120686772,6.225430258346889
-0.24354610426019807,-1.1327432698658915,6.2255954663417015
-0.24355773940484163,-1.1327771878544364,6.225759513233258
-0.2435692926584415,-1.1328108677358928,6.2259224072774
-0.24358076460491124,-1.1328443111995175,6.2260841566699305
-0.24359215582389357,-1.1328775199223358,6.226244769547088
-0.24360346689079287,-1.1329104955692273,6.226404253985944
-0.24361469837681246,-1.132943239793025,6.226562618004908
-0.2436258508489816,-1.1329757542345995,6.226719869564129
-0.2436369248701893,-1.1330080405229528,6.226876016565967
-0.24364792099921848,-1.133040100275306,6.2270310668554165
-0.24365883979077277,-1.133071935097189,6.227185028220537
-0.24366968179550996,-1.1331035465825265,6.227337908392901
-0.24368044756007393,-1.1331349363137293,6.227489715047996
-0.24369113762712216,-1.133166105861773,6.227640455805663
-0.24370175253536025,-1.133197056786291,6.227790138230504
-0.24371229281956755,-1.1332277906356516,6.227938769832324
-0.24372275901063045,-1.1332583089470538,6.228086358066518
-0.24373315163557058,-1.1332886132466,6.228232910334497
-0.24374347121757475,-1.1333187050493836,6.228378433984068
-0.24375371827602246,-1.1333485858595727,6.228522936309875
-0.2437638933265165,-1.1333782571704891,6.228666424553774
-0.24377399688090973,-1.1334077204646882,6.2288089059052405
-0.243784029447339,-1.1334369772140451,6.228950387501751
-0.24379399153024353,-1.1334660288798275,6.229090876429182
-0.24380388363040267,-1.1334948769127788,6.229230379722198
-0.24381370624495755,-1.1335235227531941,6.22936890436464
-0.24382345986744156,-1.1335519678310022,6.229506457289881
-0.24383314498780484,-1.1335802135658377,6.229643045381241
-0.2438427620924443,-1.1336082613671203,6.2297786754723266
-0.24385231166423002,-1.1336361126341319,6.2299133543474365
-0.24386179418252846,-1.1336637687560884,6.230047088741912
-0.24387121012323318,-1.1336912311122174,6.230179885342503
-0.24388055995879016,-1.1337185010718318,6.230311750787721
-0.24388984415822124,-1.1337455799944038,6.2304426916682285
-0.24389906318715238,-1.1337724692296351,6.2305727145271685
-0.24390821750783853,-1.1337991701175338,6.23070182586053
-0.24391730757918803,-1.1338256839884857,6.230830032117505
-0.24392633385678872,-1.1338520121633193,6.230957339700833
-0.2439352967929336,-1.1338781559533853,6.2310837549671385
-0.24394419683664453,-1.1339041166606196,6.231209284227285
-0.24395303443369729,-1.1339298955776205,6.231333933746708
-0.24396181002664397,-1.133955493987709,6.231457709745778
-0.2439705240548409,-1.133980913165004,6.231580618400095
-0.24397917695446966,-1.1340061543744888,6.231702665840842
-0.2439877691585613,-1.1340312188720787,6.2318238581551215
-0.2439963010970212,-1.1340561079046847,6.23194420138628
-0.2440047731966512,-1.134080822710283,6.232063701534223
-0.2440131858811729,-1.1341053645179848,6.232182364555745
-0.24402153957125156,-1.1341297345480912,6.2323001963648395
-0.24402983468451883,-1.1341539340121687,6.232417202833033
-0.24403807163559332,-1.1341779641131071,6.232533389789693
-0.24404625083610595,-1.1342018260451878,6.232648763022345
-0.24405437269472158,-1.1342255209941448,6.232763328276952
-0.24406243761715965,-1.1342490501372264,6.2328770912582625
-0.24407044600621672,-1.1342724146432592,6.232990057630097
-0.24407839826178956,-1.1342956156727093,6.233102233015666
-0.24408629478089586,-1.134318654377748,6.233213622997834
-0.24409413595769466,-1.1343415319023082,6.233324233119449
-0.24410192218350968,-1.1343642493821446,6.233434068883635
-0.2441096538468481,-1.1343868079448922,6.233543135754068
-0.24411733133342425,-1.1344092087101345,6.233651439155284
-0.2441249550261772,-1.1344314527894532,6.233758984472971
-0.24413252530529303,-1.1344535412864956,6.233865777054241
-0.24414004254822577,-1.1344754752970192,6.233971822207917
-0.24414750712971842,-1.1344972559089674,6.234077125204829
-0.24415491942182047,-1.1345188842025138,6.234181691278069
-0.24416227979390842,-1.134540361250121,6.234285525623296
-0.2441695886127073,-1.1345616881166012,6.234388633398986
-0.24417684624230981,-1.1345828658591728,6.23449101972673
-0.24418405304419372,-1.1346038955275075,6.234592689691485
-0.24419120937724356,-1.134624778163794,6.234693648341858
-0.24419831559777003,-1.1346455148027896,6.234793900690366
-0.24420537205952708,-1.1346661064718757,6.234893451713701
-0.2442123791137324,-1.13468655419111,6.234992306352991
-0.24421933710908536,-1.1347068589732785,6.235090469514061
-0.24422624639178472,-1.1347270218239585,6.235187946067702
-0.24423310730555087,-1.1347470437415572,6.235284740849925
-0.24423992019163876,-1.1347669257173711,6.235380858662203
-0.24424668538886027,-1.134786668735639,6.23547630427174
-0.24425340323360004,-1.134806273773589,6.235571082411703
-0.24426007405983421,-1.1348257418014969,6.235665197781506
-0.24426669819914865,-1.1348450737827298,6.235758655047014
-0.24427327598075596,-1.1348642706738001,6.235851458840811
-0.24427980773151178,-1.134883333424412,6.235943613762449
-0.24428629377593356,-1.1349022629775156,6.2360351243786845
-0.24429273443621868,-1.1349210602693522,6.236125995223708
-0.24429913003225903,-1.1349397262295073,6.236216230799387
-0.24430548088165976,-1.1349582617809542,6.2363058355755125
-0.24431178729975536,-1.1349766678401059,6.2363948139900245
-0.24431804959962594,-1.1349949453168608,6.236483170449249
-0.24432426809211527,-1.1350130951146484,6.236570909328126
-0.24433044308584703,-1.135031118130482,6.2366580349704295
-0.24433657488723876,-1.1350490152549992,6.236744551688999
-0.24434266380052078,-1.135066787372513,6.236830463765989
-0.24434871012775014,-1.1350844353610536,6.236915775453057
-0.24435471416882812,-1.135101960092416,6.237000490971609
-0.24436067622151386,-1.1351193624322058,6.237084614513008
-0.24436659658144563,-1.1351366432398846,6.237168150238808
-0.24437247554214808,-1.1351538033688093,6.2372511022809505
-0.24437831339505306,-1.135170843666284,6.2373334747419875
-0.24438411042951647,-1.1351877649735989,6.237415271695309
-0.2443898669328275,-1.1352045681260732,6.237496497185332
-0.24439558319022822,-1.1352212539531044,6.237577155227722
-0.24440125948492764,-1.1352378232782043,6.237657249809618
-0.24440689609811508,-1.1352542769190448,6.2377367848898135
-0.24441249330897857,-1.1352706156875016,6.237815764398972
-0.24441805139471498,-1.1352868403896912,6.237894192239838
-0.24442357063054707,-1.1353029518260165,6.237972072287432
-0.2444290512897368,-1.135318950791209,6.238049408389247
-0.24443449364360106,-1.1353348380743673,6.238126204365485
-0.24443989796152654,-1.135350614458998,6.2382024640091736
-0.24444526451097917,-1.135366280723055,6.238278191086468
-0.2444505935575229,-1.135381837638984,6.238353389336756
-0.24445588536483193,-1.1353972859737576,6.238428062472898
-0.24446114019470389,-1.1354126264889175,6.238502214181418
-0.24446635830707467,-1.1354278599406127,6.238575848122685
-0.24447153996003118,-1.1354429870796394,6.238648967931093
-0.24447668540982473,-1.1354580086514758,6.238721577215263
-0.24448179491088445,-1.1354729253963263,6.238793679558234
-0.24448686871583236,-1.1354877380491577,6.238865278517624
-0.2444919070754922,-1.1355024473397326,6.238936377625844
-0.24449691023890616,-1.135517053992653,6.239006980390262
-0.24450187845334753,-1.1355315587273918,6.2390770902933905
-0.24450681196433316,-1.1355459622583355,6.239146710793055
-0.24451171101563432,-1.1355602652948142,6.239215845322583
-0.24451657584929182,-1.1355744685411466,6.2392844972909876
-0.24452140670562808,-1.1355885726966652,6.2393526700831305
-0.24452620382325826,-1.1356025784557642,6.239420367059893
-0.2445309674391041,-1.135616486507927,6.239487591558361
-0.24453569778840517,-1.1356302975377586,6.239554346891992
-0.244540395104732,-1.1356440122250337,6.239620636350788
-0.2445450596199986,-1.1356576312447193,6.239686463201456
-0.24454969156447065,-1.1356711552670105,6.2397518306875845
-0.24455429116678287,-1.135684584957371,6.23981674202981
-0.2445588586539494,-1.1356979209765634,6.239881200425978
-0.24456339425137175,-1.135711163980682,6.239945209051314
-0.24456789818285363,-1.1357243146211862,6.240008771058571
-0.2445723706706137,-1.1357373735449385,6.2400718895782115
-0.24457681193529393,-1.135750341394232,6.24013456771855
-0.2445812221959723,-1.1357632188068236,6.240196808565932
-0.24458560167017482,-1.135776006415971,6.240258615184868
-0.24458995057388686,-1.1357887048504616,6.240319990618205
-0.24459426912156232,-1.1358013147346429,6.240380937887291
-0.24459855752613527,-1.1358138366884576,6.240441459992109
-0.24460281599903427,-1.1358262713274758,6.240501559911443
-0.24460704475018816,-1.1358386192629222,6.2405612406030375
-0.24461124398804016,-1.1358508811017107,6.240620505003726
-0.24461541391955763,-1.1358630574464712,6.240679356029596
-0.24461955475024322,-1.1358751488955885,6.2407377965761475
-0.24462366668414479,-1.1358871560432247,6.240795829518419
-0.2446277499238656,-1.1358990794793522,6.240853457711146
-0.24463180467057544,-1.135910919789783,6.240910683988908
-0.24463583112402124,-1.1359226775561988,6.2409675111662795
-0.24463982948253604,-1.135934353356183,6.241023942037942
-0.24464379994305074,-1.1359459477632454,6.241079979378874
-0.24464774270110262,-1.135957461346855,6.241135625944452
-0.2446516579508466,-1.1359688946724689,6.241190884470615
-0.24465554588506513,-1.135980248301556,6.241245757673998
-0.24465940669517663,-1.1359915227916342,6.241300248252059
-0.24466324057124744,-1.136002718696289,6.241354358883226
-0.24466704770199899,-1.1360138365652106,6.241408092227043
-0.24467082827482103,-1.1360248769442107,6.241461450924288
-0.24467458247577747,-1.1360358403752648,6.241514437597109
-0.24467831048961847,-1.1360467273965265,6.241567054849173
-0.2446820124997886,-1.1360575385423641,6.24161930526578
-0.2446856886884356,-1.1360682743433774,6.241671191414004
-0.244689339236421,-1.1360789353264351,6.241722715842821
-0.24469296432333065,-1.1360895220146972,6.241773881083254
-0.2446965641274806,-1.1361000349276367,6.241824689648464
-0.24470013882592873,-1.1361104745810755,6.241875144033907
-0.24470368859448188,-1.136120841487202,6.241925246717464
-0.24470721360770645,-1.1361311361546018,6.241975000159542
-0.2447107140389372,-1.1361413590882818,6.242024406803226
-0.24471419006028383,-1.136151510789699,6.24207346907438
-0.24471764184264388,-1.1361615917567751,6.242122189381788
-0.24472106955570713,-1.1361716024839337,6.242170570117258
-0.24472447336796735,-1.1361815434621207,6.242218613655765
-0.24472785344672793,-1.1361914151788313,6.242266322355552
-0.2447312099581132,-1.1362012181181276,6.242313698558254
-0.2447345430670774,-1.1362109527606667,6.242360744589023
-0.24473785293740832,-1.1362206195837325,6.242407462756639
-0.24474113973174086,-1.1362302190612494,6.24245385535364
-0.24474440361156294,-1.1362397516638119,6.242499924656424
-0.2447476447372234,-1.136249217858702,6.24254567292535
-0.24475086326794154,-1.1362586181099215,6.2425911024048935
-0.24475405936181477,-1.136267952878209,6.242636215323718
-0.24475723317582276,-1.1362772226210638,6.242681013894821
-0.24476038486584403,-1.136286427792775,6.242725500315617
-0.24476351458665507,-1.1362955688444354,6.242769676768072
-0.24476662249194314,-1.1363046462239685,6.242813545418795
-0.24476970873431256,-1.1363136603761526,6.242857108419162
-0.24477277346529258,-1.136322611742639,6.242900367905413
-0.24477581683534577,-1.1363315007619796,6.242943325998776
-0.24477883899387362,-1.136340327869644,6.242985984805546
-0.24478184008922718,-1.1363490934980456,6.24302834641722
-0.244784820268711,-1.1363577980765562,6.2430704129105905
-0.24478777967859336,-1.136366442031537,6.243112186347848
-0.24479071846411418,-1.1363750257863545,6.243153668776679
-0.24479363676948782,-1.1363835497614019,6.243194862230381
-0.24479653473791585,-1.1363920143741202,6.243235768727973
-0.24479941251159157,-1.13640042003902,6.2432763902742705
-0.2448022702317073,-1.1364087671677017,6.24331672886001
-0.2448051080384615,-1.1364170561688804,6.243356786461939
-0.24480792607106708,-1.1364252874483993,6.243396565042909
-0.24481072446775679,-1.1364334614092533,6.243436066551981
-0.24481350336579008,-1.1364415784516098,6.2434752929245345
-0.24481626290146227,-1.1364496389728282,6.243514246082338
-0.2448190032101091,-1.13645764336748,6.243552927933691
-0.24482172442611405,-1.1364655920273672,6.243591340373453
-0.24482442668291662,-1.1364734853415446,6.243629485283207
-0.24482711011301822,-1.1364813236963385,6.243667364531316
-0.2448297748479872,-1.1364891074753602,6.2437049799730175
-0.24483242101846842,-1.1364968370595376,6.243742333450515
-0.24483504875418605,-1.136504512827123,6.243779426793093
-0.24483765818395387,-1.1365121351537129,6.243816261817195
-0.2448402494356805,-1.1365197044122752,6.2438528403265074
-0.24484282263637397,-1.1365272209731605,6.243889164112058
-0.24484537791215227,-1.1365346852041198,6.243925234952306
-0.244847915388245,-1.1365420974703324,6.243961054613225
-0.2448504351890024,-1.136549458134409,6.243996624848397
-0.24485293743790032,-1.1365567675564254,6.24403194739911
-0.24485542225754822,-1.1365640260939285,6.2440670239944165
-0.24485788976969372,-1.1365712341019616,6.244101856351254
-0.2448603400952297,-1.136578391933078,6.244136446174494
-0.24486277335419726,-1.1365854999373617,6.244170795157071
-0.2448651896657993,-1.136592558462442,6.244204904980038
-0.24486758914839732,-1.1365995678535117,6.24423877731265
-0.24486997191952353,-1.136606528453346,6.244272413812457
-0.24487233809588396,-1.1366134406023165,6.24430581612539
-0.24487468779336571,-1.1366203046384102,6.244338985885831
-0.24487702112704252,-1.1366271208972492,6.2443719247167
-0.24487933821117996,-1.1366338897121024,6.244404634229546
-0.24488163915924085,-1.136640611413901,6.244437116024621
-0.2448839240838933,-1.136647286331262,6.244469371690943
-0.24488619309701257,-1.1366539147905013,6.244501402806398
-0.24488844630968934,-1.136660497115645,6.244533210937819
-0.24489068383223728,-1.1366670336284554,6.244564797641043
-0.2448929057741918,-1.136673524648438,6.244596164461009
-0.24489511224432065,-1.1366799704928594,6.244627312931841
-0.2448973033506317,-1.136686371476766,6.244658244576882
-0.2448994792003712,-1.136692727913002,6.244688960908823
-0.24490163990003583,-1.1366990401122146,6.244719463429747
-0.24490378555537343,-1.1367053083828829,6.244749753631217
-0.24490591627139072,-1.1367115330313184,6.244779832994344
-0.24490803215235843,-1.1367177143616969,6.244809702989855
-0.24491013330181413,-1.1367238526760597,6.244839365078186
-0.24491221982257227,-1.136729948274334,6.244868820709528
-0.24491429181672342,-1.1367360014543508,6.24489807132393
-0.24491634938564394,-1.1367420125118541,6.244927118351342
-0.24491839262999954,-1.1367479817405168,6.244955963211698
-0.24492042164974825,-1.1367539094319614,6.244984607315006
-0.2449224365441502,-1.136759795875765,6.245013052061377
-0.2449244374117671,-1.13676564135948,6.245041298841128
-0.2449264243504711,-1.1367714461686484,6.245069349034844
-0.24492839745744963,-1.1367772105868121,6.245097204013431
-0.24493035682920522,-1.13678293489553,6.245124865138212
-0.24493230256156767,-1.1367886193743906,6.245152333760959
-0.24493423474969345,-1.1367942643010287,6.245179611224016
-0.24493615348807313,-1.136799869951135,6.245206698860283
-0.24493805887053344,-1.1368054365984717,6.245233597993368
-0.24493995099024513,-1.1368109645148876,6.245260309937594
-0.24494182993972743,-1.1368164539703285,6.2452868359980975
-0.2449436958108482,-1.1368219052328525,6.245313177470865
-0.24494554869483554,-1.1368273185686448,6.245339335642831
-0.2449473886822745,-1.1368326942420273,6.24536531179192
-0.24494921586311852,-1.1368380325154714,6.245391107187098
-0.2449510303266903,-1.1368433336496195,6.245416723088465
-0.2449528321616856,-1.1368485979032867,6.245442160747301
-0.24495462145618077,-1.1368538255334784,6.245467421406146
-0.24495639829763474,-1.1368590167954047,6.245492506298814
-0.2449581627728944,-1.1368641719424897,6.245517416650519
-0.2449599149681977,-1.136869291226388,6.245542153677886
-0.24496165496917938,-1.1368743748969943,6.245566718589029
-0.24496338286087363,-1.1368794232024568,6.245591112583629
-0.24496509872772082,-1.1368844363891875,6.245615336852956
-0.24496680265356974,-1.1368894147018769,6.245639392579956
-0.24496849472168084,-1.1368943583835083,6.245663280939308
-0.2449701750147346,-1.1368992676753602,6.245687003097463
-0.2449718436148306,-1.1369041428170312,6.245710560212726
-0.2449735006034938,-1.136908984046441,6.2457339534353
-0.24497514606167897,-1.1369137915998488,6.24575718390733
-0.2449767800697748,-1.1369185657118641,6.245780252763001
-0.24497840270760726,-1.1369233066154534,6.245803161128542
-0.2449800140544432,-1.136928014541958,6.245825910122333
-0.24498161418899525,-1.136932689721104,6.245848500854913
-0.2449832031894255,-1.1369373323810097,6.245870934429066
-0.2449847811333491,-1.1369419427482004,6.245893211939873
-0.2449863480978368,-1.1369465210476197,6.245915334474762
-0.24498790415942312,-1.1369510675026384,6.245937303113537
-0.2449894493941043,-1.136955582335068,6.245959118928479
-0.24499098387734622,-1.1369600657651688,6.245980782984351
-0.24499250768408726,-1.1369645180116656,6.246002296338517
-0.24499402088874103,-1.136968939291755,6.246023660040909
-0.24499552356520163,-1.1369733298211147,6.2460448751341335
-0.24499701578684488,-1.1369776898139181,6.246065942653515
-0.24499849762653408,-1.1369820194828422,6.246086863627146
-0.2449999691566234,-1.1369863190390765,6.246107639075925
-0.2450014304489603,-1.1369905886923353,6.246128270013623
-0.24500288157489095,-1.136994828650873,6.246148757446933
-0.24500432260526175,-1.1369990391214881,6.246169102375507
-0.24500575361042434,-1.1370032203095342,6.246189305792016
-0.24500717466023753,-1.1370073724189291,6.246209368682188
-0.24500858582407228,-1.137011495652169,6.246229292024882
-0.24500998717081598,-1.1370155902103394,6.2462490767921075
-0.24501137876887122,-1.1370196562931145,6.246268723949087
-0.2450127606861672,-1.1370236940987803,6.246288234454304
-0.24501413299015312,-1.1370277038242382,6.246307609259543
-0.2450154957478103,-1.137031685665013,6.246326849309934
-0.245016849025651,-1.137035639815266,6.246345955544015
-0.24501819288972168,-1.1370395664678004,6.246364928893772
-0.24501952740560776,-1.1370434658140767,6.246383770284679
-0.2450208526384383,-1.1370473380442199,6.246402480635746
-0.2450221686528839,-1.1370511833470243,6.246421060859558
-0.2450234755131648,-1.1370550019099694,6.246439511862348
-0.2450247732830529,-1.137058793919224,6.246457834543996
-0.24502606202587432,-1.13706255955966,6.246476029798125
-0.2450273418045122,-1.137066299014858,6.246494098512092
-0.24502861268141157,-1.1370700124671163,6.246512041567078
-0.2450298747185793,-1.1370737000974636,6.246529859838102
-0.24503112797759116,-1.137077362085663,6.246547554194087
-0.24503237251959048,-1.1370809986102248,6.246565125497872
-0.24503360840529567,-1.1370846098484149,6.246582574606286
-0.2450348356950003,-1.1370881959762607,6.246599902370156
-0.24503605444857596,-1.13709175716856,6.246617109634404
-0.245037264725476,-1.1370952935988925,6.246634197238041
-0.24503846658474054,-1.1370988054396272,6.2466511660142
-0.24503966008499486,-1.1371022928619312,6.246668016790221
-0.2450408452844567,-1.137105756035775,6.246684750387672
-0.24504202224093552,-1.1371091951299481,6.246701367622372
-0.24504319101183916,-1.1371126103120557,6.246717869304461
-0.24504435165417354,-1.1371160017485396,6.246734256238422
-0.2450455042245463,-1.1371193696046773,6.2467505292231165
-0.2450466487791702,-1.1371227140445956,6.2467666890518325
-0.24504778537386454,-1.1371260352312764,6.246782736512332
-0.2450489140640601,-1.137129333326562,6.246798672386876
-0.24505003490479985,-1.1371326084911688,6.24681449745226
-0.2450511479507433,-1.1371358608846944,6.246830212479868
-0.24505225325616828,-1.1371390906656167,6.246845818235694
-0.24505335087497224,-1.1371422979913144,6.246861315480393
-0.24505444086067868,-1.1371454830180647,6.246876704969319
-0.2450555232664354,-1.1371486459010594,6.246891987452544
-0.24505659814502012,-1.1371517867944032,6.246907163674917
-0.24505766554884265,-1.137154905851128,6.2469222343760835
-0.24505872552994684,-1.1371580032232012,6.246937200290537
-0.24505977814001187,-1.137161079061526,6.246952062147643
-0.24506082343035812,-1.1371641335159581,6.246966820671677
-0.24506186145194592,-1.1371671667353038,6.246981476581875
-0.24506289225538253,-1.1371701788673352,6.246996030592436
-0.2450639158909194,-1.1371731700587917,6.247010483412592
-0.24506493240845947,-1.1371761404553933,6.247024835746626
-0.24506594185755592,-1.1371790902018397,6.247039088293913
-0.24506694428741654,-1.137182019441826,6.247053241748942
-0.24506793974690652,-1.1371849283180422,6.247067296801361
-0.2450689282845485,-1.1371878169721856,6.247081254136009
-0.24506990994852895,-1.137190685544963,6.2470951144329545
-0.24507088478669553,-1.137193534176106,6.247108878367512
-0.24507185284656377,-1.1371963630043656,6.247122546610302
-0.24507281417531587,-1.1371991721675279,6.247136119827259
-0.2450737688198087,-1.137201961802422,6.247149598679679
-0.24507471682656862,-1.1372047320449188,6.2471629838242375
-0.24507565824179806,-1.1372074830299435,6.247176275913041
-0.245076593111379,-1.137210214891483,6.247189475593641
-0.24507752148087059,-1.1372129277625873,6.24720258350909
-0.2450784433955165,-1.1372156217753835,6.247215600297941
-0.24507935890024415,-1.137218297061071,6.247228526594308
-0.24508026803966668,-1.1372209537499394,6.247241363027869
-0.24508117085808742,-1.1372235919713731,6.247254110223919
-0.2450820673994999,-1.1372262118538465,6.247266768803412
-0.2450829577075912,-1.137228813524947,6.2472793393829384
-0.24508384182574358,-1.13723139711137,6.247291822574813
-0.24508471979703583,-1.1372339627389265,6.247304218987078
-0.245085591664248,-1.1372365105325521,6.247316529223548
-0.24508645746986055,-1.1372390406163126,6.247328753883814
-0.24508731725605912,-1.1372415531134048,6.247340893563285
-0.24508817106473352,-1.1372440481461736,6.2473529488532415
-0.24508901893748153,-1.13724652583611,6.247364920340814
-0.24508986091561305,-1.1372489863038557,6.247376808609066
-0.24509069704014833,-1.1372514296692129,6.247388614236982
-0.245091527351821,-1.1372538560511494,6.247400337799524
-0.2450923518910813,-1.1372562655678056,6.247411979867635
-0.2450931706980989,-1.137258658336497,6.247423541008285
-0.2450939838127603,-1.1372610344737224,6.247435021784496
-0.24509479127467765,-1.1372633940951689,6.247446422755356
-0.24509559312318369,-1.1372657373157182,6.24745774447606
-0.24509638939733808,-1.1372680642494526,6.2474689874979505
-0.2450971801359291,-1.1372703750096558,6.247480152368513
-0.24509796537747422,-1.1372726697088238,6.24749123963141
